0.049038941338068853248444156633923;0.23951514731342316011364346195478;0.27853879616259158424895758798812;0.25671468631613991728812607107102;0.22327326057467200559614184385282;0.44881084220314315658129089570139;0.11794331568264848630889218839002;-0.089608669172752841713958105174243;0.078556400921693358974096099700546;-0.088476880250058453913908351751161;0.0008105995735885329622760764323175;-0.21125453663940008119936919683823;-0.41441168178049142545305016938073;0.11060159185032170103824000761961;0.15045515429695244247199070741772;-0.023719967972727684646372381394031;0.43345408130558671366827638848918;0.067645542896999977244831825373694;0.17450954483795844129900842744973;0.47045794726811851482750626018969;-0.11272412532371450799573153744859;0.45534559875050328869861004932318;0.046654654444659215961621612223098;-0.26242623011656729392626630215091;-0.022049915118544760606056343021919;-0.088305371097996354645687233642093;-0.45409508260630349063546873367159;0.2971334124396770581810756084451;-0.21111462155498378345797050315014;0.08930149555270439076792854393716;0.34007103948666161929992313162074;-0.19671712570711058498673651229183;-0.39970279279981407727362352488854;-0.36585680410400378548274602508172;0.42110005881768108881857415326522;-0.12396840258205177320860457257368;-0.38353088866284201774448092692182;-0.038371707997482906726816054288065;0.13761650130159119864714512004866;0.46401608230325253057202417039662;0.22419675052269771864388303583837;0.11847788891845223435694833824527;-0.46607633586427454908118761522928;-0.03759012939532424546484890015563;-0.19093415325279605720965037107817;-0.34444588792078478789449036412407;0.38617487346471834896988184482325;-0.48680810572043459183433355974557;0.30683207196054029797238626997569;-0.24498824157099891030142657655233;-0.34326498581299463852545272857242;0.45577660010364340337218891363591;-0.0063806216331437348721067337464774;-0.35912123156204223128895591798937;-0.34575640704869092800777252705302;-0.10436717612473739302814124130236;0.29893425403778062232618140114937;-0.37573411329840433747762062921538;0.28337112610105563703655207064003;0.47757831884026524793540602331632;-0.31406506190530947275618700587074;0.13184919260087113457302621100098;0.28711440990526848615616017923458;0.1408874080496211877999712669407;0.21996331761601817245121992527856;-0.029918683852140359746840658772271;0.10895088532213781373769734273083;-0.45753580682561023618148965397268;-0.19700006636768824241912057004811;0.39145912633545687508984656233224;-0.15312244785170020522357958725479;-0.013886034643677491740021423538565;-0.37033985018585224846532355513773;-0.10475327029282427426792878577544;0.26210936743441493046447021697531;-0.36622799339862077694363051705295;-0.31884270650113755163346240806277;-0.45334850939769294475567562585638;-0.23293401451143724845138649470755;-0.10081709793337884084607480872364;0.49628092153617486825822879836778;
0.1979337145282272780733023864741;-0.049249047780988541855862195006921;0.4598632941413265395880216601654;-0.41661533197017103224979450715182;-0.23295763430184435183178948136629;0.48282340821596225755030218351749;0.46824920103510692115378333255649;-0.049599951873319281236973665727419;-0.012191739046753469200012887085904;0.28492787982401535096244060696336;0.15249534866604108618304280753364;0.24363111250336844104680267264484;0.34031768998110178969795924786013;0.37759813005716669209732572198845;0.40157300768651504885298209046596;0.14564205568595856021829604287632;0.33888646014597079147989688863163;0.28004369972476395034277629747521;-0.018741215352466034094192082193331;0.15004219594787560065896059313673;-0.054897227397781078739313898040564;-0.0601215348274811156592534189258;-0.20692961962609368598009496054146;0.038659029759054108765781165857334;0.37248166062332144221613816625904;0.027496730226039156619322056940291;0.3602144853955711045756515886751;0.10064238092247601574769078069949;0.47036758002546485979422641321435;-0.33522463161124010921909643911931;0.45611765530665038248514520091703;-0.2511457097566240359576283935894;0.10027016621975126664523259023554;0.28725474295368103039294283007621;-0.03330350947196508704095663233602;0.080544126883208777556433233257849;0.32618656012884095218851143727079;0.28351196431646530360382030266919;0.39945688453774386150740838274942;-0.34036168090189333756967471344979;0.22288714159331768360772230153088;0.17213062176964055716155144182267;-0.45314509191569590784709475883574;0.19932819497961606902691755749402;0.06011698378125407415950576250907;-0.20017932593641907246251321339514;0.13592672426874474744806775561301;-0.010718079809458325168947112615569;-0.41825850016737292635937706108962;0.072707244417862804120034070365364;-0.024525797476428357057898210769054;0.49834440476093710969962558010593;0.29317357072859107081086449397844;-0.2768711693545599095145348655933;-0.49422393340109210813082540880714;-0.099644477855637625385298861147021;0.28727965886304773768245013343403;-0.49441372048414639062130504498782;0.40264482978648652444775279946043;-0.47713711143567927308595244539902;0.0055888737921100384298256358306389;-0.40830857762840300217987987707602;-0.12329625096513269211229157917842;0.090896791089010164910177991259843;0.15601578175646058088688050702331;0.48591087809066446645545056526316;0.008579880628166836054049326776294;-0.16353639155335031318827532231808;-0.13573325537516539585070063367311;0.072978854492666500597408685280243;-0.12528875484505541670898765005404;-0.043995979719330224888551583717344;0.29468217949228203700329231651267;-0.36806731301921979948588159459177;0.48589006768845866002237698921817;0.42201920649206525748553531229845;-0.11670293827496808214405632497801;-0.43259671942175248471329496169346;-0.12572996319912571605570406063634;-0.28761143365388130987980730424169;-0.23265776136016419473051541899622;
0.13431673331266169579834013347863;-0.32368031136527730673435598873766;0.12328381616727457359417030602344;-0.20875635881601106724758665222907;-0.35845641851744713957117483005277;0.15350974565420560935535831958987;-0.035936727533770862486051100859186;-0.12582380641767154649812709976686;-0.012735634652312866066381502605509;-0.38384579920654526841161668926361;0.087817424221740214562714754720218;0.28949597939371507493433455238119;-0.29577369876534337356233095306379;0.2871077498112617476522245851811;-0.49005869776609478627449334453559;-0.34753549727383004075420558365295;0.25206816961347378036606414752896;0.32674008479020755224553340667626;0.48791367471353908058517845347524;0.13144129836448203985099780766177;0.21760632723523709586288532591425;-0.18417888939384652324804392264923;0.10853165563789923808712956088129;0.28399222787775413312516548103304;-0.4743205418790888971969366139092;-0.44604240307355863537353002357122;0.16636194941436122096689587124274;0.16728760938305775596290914108977;0.18488129712627554557258235945483;-0.25298033378275991411854306534224;-0.28079553272602697511217684223084;-0.26839197525298663649095942673739;-0.38123955284550931077447444295103;-0.48196136730267669090466142733931;0.32185710670545086831140224603587;0.40667433126428742529157034368836;0.43182880824850600198772099247435;-0.063246513822531102988477869075723;-0.04134216652884148412994136378984;-0.34100464046394707295917214651126;-0.3722678725172775537899383380136;-0.4246331201688793299808821757324;-0.29771582209413044450840857280127;0.074116526060662879515916756645311;0.46419109879095499238133015751373;0.26187626066690583570562012027949;-0.066818069529107848580906647839583;-0.46438807119994673922036554358783;-0.080023341541609172011817463499028;0.3422496025224988080992716277251;-0.0061393547851888996547131682746112;0.14865970973069198013405411984422;0.12970674642333768211699407402193;-0.45423065958796310370715332282998;-0.10380404373162221975945840313216;-0.42858250956106330731287812341179;-0.4221875864157434432577531424613;-0.2395731905031880937251287377876;0.48132688777880550112797664041864;-0.16959333196681475319778087396116;0.031838381261178883008255979802925;-0.20630645220561139030479580469546;0.24540162213534022495053932289011;0.44915362382895496207169117042213;0.17210351250411082268954032770125;-0.32416096945649608418449361124658;-0.25356898837081065511966926351306;0.066078435572475502368661182117648;-0.38906196068023091161336424192996;0.40443784725944698088540008029668;0.24050676784225666349215089212521;-0.3611417450867145384485468184721;-0.3154142264118013905260795581853;-0.23398831683715781704080427516601;0.49911161246915336509033522816026;-0.44947413213358411443465456613922;-0.16533386570735447707036769315891;0.40665241678799401991994955096743;-0.1756484826630516637990808703762;0.21489160565950948811320131426328;0.42424189196146977476331585421576;
-0.3650142837217043578768027600745;-0.094082045155514049117329022919876;-0.13309171102907496608835913320945;0.36551775570422084804533824353712;0.044949147930041899456909959553741;-0.19077314729459826647683939881972;0.37260999911291159403248229864403;-0.18267727721618087777244454628089;-0.36654165799787336021964279098029;-0.44279262667397023545134970845538;-0.28937416123083137264870856597554;-0.4953773723975326004342889518739;-0.44950177173227690019530200515874;-0.46985081057844213514584907898097;-0.23124226020848631657500504843483;0.19936266458717943894640711732791;0.13015970575359969707562868279638;-0.38728779231070897814959153038217;0.3464627408263469821037006113329;-0.053731172919815828326051132535213;0.21532881021492833450992065991159;-0.15312862138914251630694707273506;0.36985094192496914544676656078082;0.30391323918264545600464998642565;0.039399351180257835558506940287771;0.069319839798606341929598784190603;0.36753618917800745524715466672205;0.24608202394444633753778362006415;-0.45687859114465817489403320905694;0.15938238334661347650467178027611;-0.11492857567194292300882807467133;0.021410404633345869740423950133845;-0.1550128264888921969522073140979;0.053235534316314780944878748414339;0.49483827490021436990019765289617;-0.12867503561802073885900199456955;-0.36824889364343155184755573827715;-0.043949881947704438900359491526615;0.036852258373132329438703891355544;-0.026125669193722944605440261511831;0.45602342674174112246987533580977;0.20300352973495694453021087610978;0.16528814552060600018279501455254;-0.22655611014957477422626652696636;-0.40216059820705707394949968147557;0.39412712562724094844668343284866;0.39799371691656182381535700187669;0.27290447018134333934114010844496;0.48916935263909255837688760948367;-0.39740735236782909201025404399843;0.26042742395448670311708383451332;0.37615095986597046895383300579851;-0.45043043308034108607174061944534;-0.031431801158773198245910407422343;0.49992963097964715490917342322064;-0.09105510488894202891785312203865;-0.47778042563403189113557800737908;-0.13351984592205934365694020016235;-0.46486297030403789243280243681511;0.37624444558525627080314279737649;-0.074668385407499593409141880329116;-0.43694196384341060790390542933892;0.15170167584576976782528845433262;-0.16712695038129132818482958100503;-0.03913198556674912786945697007468;-0.46019036826225173664184353583551;0.32571209798459010986704242895939;0.29070517100849158076414369134;0.098902245001266320123534114827635;-0.21040669329330374814901460922556;0.11221372260914319607394418198965;0.29096727971230740283914428800927;0.37494019622255925217046979014412;0.44985338578119893337969870117377;-0.44470273021984335626299866817135;-0.34638151498162722541351854488312;0.35785749177481218641361238042009;-0.46887976839963474429140433130669;-0.46831185314772227901158885288169;0.27623205275091056165592817706056;0.34023118592397660897574951377464;
-0.31277179987467806920875545984018;-0.27569136807108252096298883770942;0.0080986251845265311288812881684862;0.35849409451984148855530065702624;-0.39428755151936656364597411084105;0.30689233859212905475288835077663;-0.22979291403578711028288239504036;-0.13237376936035782915013214733335;0.044470211119845060032673700334271;0.0062717565429779575936208857456222;0.49655537467200860923810523672728;-0.43385032401798490075961467482557;0.38918968169914902599515471592895;-0.35561532847872945328759897165583;-0.27221221395810707432971753405582;0.46069992972603035497058954206295;0.13201966212813287526728345255833;0.046046995300242143933644456410548;-0.40541928370270807757691500228248;0.46918111394624528731611690091086;-0.40705970962349430353199863930058;-0.12466252998294508058663154770329;0.096838285894362940986468402115861;-0.45057312045621061846745192269736;0.33843810586822942187978924266645;-0.03149504439463801652721031132387;-0.28491414020005401130930522413109;0.17426300647012082922771014636965;0.40008066796634167427981765285949;-0.30824117715481652579612159570388;-0.32171544812065716589799535540806;0.22027765918924191446137683669804;-0.30224914839547162292987536602595;0.44578958729924533788135931899888;0.45705466655945603537958277229336;-0.33193466346655386978170554357348;0.38889708032082670463580598152475;-0.49391392752783414010764317936264;-0.4748605131587026462192113740457;0.31774659330820487213031810824759;-0.41395110742117224855718404796789;-0.36240396000357599781693807017291;-0.2205454554563179292436814193934;0.4016975463334923057701075777004;0.38337031693844270119342354519176;0.1214162339430673309692565453588;-0.096043907284783180955400894163176;0.3428500889324903599941762877279;-0.37282530460668705796223321158323;0.45723152312652903805911819290486;-0.42680660405037418314577735145576;0.081326908054187518892774733103579;-0.32815288072676762620716317542247;-0.42600489281832631949242795599275;0.36989534557564696104492441008915;0.011432199596772774086161916784476;-0.41117942506426863324975329305744;0.12946322719346914364990652757115;-0.0099845232949816731249370604928117;0.489205440407646130474006440636;-0.26111319124562604176986724269227;-0.20165206778222194428096258889127;0.4947170189203446977188605160336;-0.14606637752702067434285027047736;-0.098276042314675571276438859058544;0.27989119873320134068706011021277;0.21053684003613815090005800811923;-0.026578173818044503740054551599314;-0.31757966382367031066280560480664;-0.4752793376370953448706302424398;-0.30871599927023651854796071347664;-0.15336502568384974276582966012938;-0.30231514996195640865295217736275;-0.064999948329168999450189403432887;0.45886527272746824301918877608841;-0.014553134906776898915836682135705;0.14777884421972875550466142158257;0.074370153481239431592086930322694;0.11923335644746324568643558450276;0.36113147424699987286800251240493;0.4874492380877424313467827232671;
-0.16271809739666220906428861781023;-0.30908628754097527968625058747421;-0.43097309335060451918053558983956;-0.34757186264570605338519726501545;-0.13171131884405840040130897250492;0.23630039532495561438452114089159;-0.057829451193997960523063284199452;0.21006549879256430912732867000159;0.088560916572609671426619115663925;0.49439454323212461694936337153194;0.34243263469549689581583606923232;0.1106225496438510980112823745003;-0.23813819580412659560053612040065;0.39463315875935867094170816926635;0.075841184088421331743745668063639;-0.47890048035057514175250048538146;-0.0091875733009680327079138351109577;0.17970333591672005280059920551139;-0.41755709531340068352278649399523;0.31640216072711380146387227796367;0.0068080626067689165026308728556614;0.44148068265114936981063920029555;-0.35162805599063151618111078278162;0.072953824805658484820014564320445;-0.17837494086721655817129317256331;0.0088618305719229129024938629299868;-0.036247924446526857966688339729444;0.43452397994542701908926574105863;0.083325893965267905372229506610893;0.43743575911616516815882960145245;0.23589913734851419846449971373659;-0.0029752815554589528979079204873415;-0.031897002989120626370578293062863;0.31198890402448231640164522104897;-0.18583480480700742543120895788888;-0.0012355643074545841209044283459662;0.0080132317419071563691090887004975;-0.08564536332863148526683971795137;-0.10426054146442831349617108571692;-0.28290695629999318416736286962987;-0.35732004383753401821621764611336;-0.22522494736363851686178350064438;0.06491391830176462818258187326137;-0.47779474272904703946451832052844;0.2466684391539198939469201832253;0.43107215494875794625784237723565;0.40311102063034720544010269804858;0.095310184732729230638881290360587;-0.38662415818688433688521399744786;0.013403823808982195942007820121944;0.14605067702928820061458736745408;0.22416487105478499763933086796897;-0.2762052486792445638030812915531;0.36630919025696562218996632509516;0.00044790865582877703587882933788933;0.45915661727812151493566261706292;0.18991079923381670724324976617936;0.14777344390693691877913806820288;0.23624835876319283389790371074923;0.31316135570669478838112809171434;0.40710377185857460347051528515294;0.27196674593085379267876078301924;0.15697851613168700701805846620118;-0.49654399836783608135348799805797;0.088873015769922569795369327039225;-0.089782255097638097307566340532503;0.43476696472463505216410339926369;-0.22492896076917850978205137835175;0.49137637020505575691231570090167;-0.38143741167633865574160267897241;-0.081658873383160357484200631006388;-0.23554644975943472839929881956778;0.205376472688402866850765349227;-0.27243628493780858157435886823805;0.096206781115096728917990276386263;-0.38668023504962423242403701806325;0.11188736063666915310221838808502;0.080275327991831124663235641492065;0.43386782696053161068050485482672;0.06179673776341643165466166465194;-0.013709775846778182728513684196514;
-0.23076385309573810289407447271515;0.30149239820660467259472170553636;-0.37580898755142144729290976101765;0.087729897430943726277519090217538;-0.055427701735397072457800504707848;-0.2799437316157387667381328810734;-0.080008436135004468159337420729571;0.39557401073956022230504459002987;-0.015711195432191960019707721585291;0.069452568705485329125792759441538;-0.018811781980209663078795756518957;-0.11378933762293141906951632336131;-0.13002443922844203472166668689169;0.37458568810669112814082382101333;0.0056046897797992212275630663498305;-0.17956790848565101770262231184461;-0.4805140970536021516323899049894;-0.27698634579997549742813589546131;-0.36871930353394233303987448380212;-0.45367437255194709155858845406328;-0.37422958489140401017181147835799;-0.27375326652756515333209108575829;0.39077494890458064347171784902457;-0.16119581581436098760562458664936;-0.033361926042528189384483994217589;0.44820707407797644172831041942118;0.32629845309506777528696375156869;0.44874147777240269707732522874721;0.2410814314164364535741924555623;0.22709000079776064939807156406459;-0.4953882578395514824087797478569;0.22241407811598290500398888980271;-0.056135447442939689910446077192319;-0.11382717863873004215946593831177;-0.032085783019139613170267466557561;-0.36613529377450226842682923233951;0.17801720645080709726215673072147;-0.32440698583243166019940417754697;-0.41596036806693448273364310807665;0.22340553856306399893583147786558;-0.11262907413053790950385746327811;0.17545286780424540484801809725468;-0.32719829728900839960203938971972;-0.45305862407410196768253740629007;0.27672287336562939596973365041777;0.21707153850641003334231982080382;0.41330927887337043369342381993192;0.4341565941928005045724603405688;0.44430323152351580695551547250943;-0.24188346193955467811065318528563;-0.39569930968998034970240951224696;-0.036097410078409275513422471703961;0.060784985821264791994167353550438;-0.16268196667166612279231685533887;0.045556637435653413170655312569579;-0.21822107462391299170789693562256;-0.30311255956824889601364247937454;-0.49390457314916713649211033043684;0.30769822512172539941133209140389;-0.37844251810667117741360243599047;-0.42495559731541510117835969140287;-0.011031715472414604928275139172911;0.33215734962872367486141911285813;0.39565865997301374878958313274779;-0.033396389560835570975427799567115;0.39447907758793432364541331480723;-0.46118047848324389414997881431191;-0.4957384522834005768920917489595;0.33391898005930764625759366026614;0.34046191959724858566715965935146;-0.31364100587041188195058794008219;0.13555874932618250383598024200182;0.42409807308444580353778974313173;0.22274366101092279990325550897978;0.034241236622439386039218334190082;-0.32363208191321013451613453071332;0.2220229692482028616140610211005;-0.41119287907567131368224977450154;0.24297719021491070989782201650087;-0.037729786625610384209750236550462;-0.04735167968972064933552701404551;
-0.26003169233916073599388596448989;0.1449713493893669546963565153419;0.4430197900412142786308322683908;0.43440817304606849091896947356872;-0.067930720133837496632622787728906;-0.42566242480976113071733379911166;0.11096122423388865563254057633458;-0.023931522154764295340356738961418;0.25658596410806278065308561053826;-0.47354457273737460276663568947697;0.19712792541642321086925448980764;-0.35999749399315039699587259747204;0.28215924646936496600346799823456;-0.259663863128847260952625219943;-0.4128969991432695496591520623042;-0.33490984946735780081183975198655;0.20142466902612066181887939819717;0.086348853855754748032325096573913;0.25946103921831842331613415808533;-0.34471809000123687649619341755169;-0.28953686442973747272588980194996;0.26495000494778864208456070628017;-0.28899561568015097456907369632972;0.17761339281752241969769556817482;-0.36927417623143038438726648564625;-0.37526324804306765425820913151256;0.039949242503793058745031885337085;-0.12513626764728053020192533040245;0.32519453906229056627807949553244;-0.088957842975538048424510861877934;0.34101312724203969306557837626315;0.49205664310280949891307500365656;0.1394761847658207987166179009364;0.40660600004079461289308028426603;0.20042965293496672884998588415328;0.27505316682730673871759563553496;-0.47379574307084959539082547053113;-0.14360106489200008539341979485471;0.30535106534797540334125187655445;0.017279876369728719431861918565119;-0.40861987225781531973822779946204;-0.1914970984007053345088422702247;-0.44902465650328288182535629857739;0.49235166526041684864622993700323;-0.46392799502090253938035857572686;-0.057655854828858654759216051388648;-0.19699540948765831283040483867808;0.14117288476290767995635633269558;0.040167525790850033828860432549845;-0.10178180905535533229411271349818;-0.30652496285409569498625614869525;-0.074045286059949144696901157658431;-0.47028774415189328328423812308756;-0.36620903022107431645792985364096;0.17813020763585407646445446516736;0.25285987070914583974001743627014;0.071764171987495628535214109433582;-0.017993227751146534387771680485457;-0.17297994929041271561231951636728;0.11540023422330869529162100661779;-0.28415717651999777837446004014055;-0.35756198275729350610774304186634;-0.048090237621963294323279569653096;-0.38612365910718898787123976035218;0.46426973498832202480457453930285;-0.46199081078496045948966752803244;0.18116427054506600846650599123677;-0.169754829777445270799773879844;-0.03610487751557384106249060096161;-0.055301853305803949645280681579607;0.30718046152039124585542140266625;-0.25218021906688609101720999206009;-0.039237493850500571035411212506006;0.021990749871085735200892941065831;0.22865316905065802277619013693766;-0.39940750653681150739160443663422;-0.42433489385668671234341786657751;0.15471844854488148168769612311735;0.29664761401427430786981176424888;-0.22529518896881534084641884874145;0.18794757742612933082426707187551;
-0.09793389865379714676052458344202;0.081002984406565503583408371923724;0.41469568556916580615023804057273;-0.13666112776040778564734523570223;0.027788328353361202438520649593556;-0.15581515386452549076778950620792;-0.47318621579833647361468251801853;-0.1529475566269078989911633925658;-0.19552097250917066517672537884209;0.36969169794737488654590151782031;0.36016724435652225366766288061626;0.34617358711065948639884481963236;-0.17956614616242488891018069807615;0.14155557019869913215615042645368;-0.45624182388158907031083799665794;0.13522850993373669581387730431743;0.011620593523038569294669741793768;-0.16924366339166269090910077466106;-0.11134374694812493311601997447724;-0.38551422458401501947022893546091;-0.47710626998808919330130606795137;0.058289137636222343452629957027966;0.48170707664050638197039688748191;-0.37034216562545829720676238139276;0.17819673232367350124150107149035;-0.31751475639212667356758856840315;0.36569635010991974333194320934126;0.057802345173900593344740173051832;0.41343766251758184981923704981455;-0.49757790523734413135059639898827;0.17703054801043105470625960151665;-0.33813534350194185407190161640756;0.035741821524310157798254294903018;0.089442312367547849305537965847179;-0.23639295881133137733343119180063;-0.4389879186106862007932249980513;-0.2740863769040140507371461353614;0.14341556914954622925506555475295;-0.35820942856291948519498191672028;0.014423292568529477719607712060679;-0.38345150046023734891065259944298;0.3585925703244593476526347330946;0.29566841204649163543649592611473;0.31839860033291822460910225345287;0.088253711588051175773728118656436;-0.36449010956540528471947482103133;-0.32917490313563602111202044397942;-0.066732148378449485104368932297803;-0.28390943664216805597533266336541;-0.031475804591085676520378910936415;0.1078611337664282521231484679447;-0.074614488925865640744916618132265;-0.33920398828221132170313012466067;0.40720605503488949139523356279824;-0.39292872257431987748077517608181;-0.12670201580106754679633240812109;0.25992564853669142266312519495841;0.22344103344335430882949822262162;-0.063216394318838575738794816061272;0.24369448524544512491019077060628;-0.076058784813302915406296733635827;0.11056022678081622867551914168871;0.072738243051052586807259103807155;-0.37128018697525566604866753550596;-0.40409007075206498926789322467812;-0.25409813368427514035374770173803;0.38302160016255926144879140338162;0.17023422224754602982699225321994;0.17236981017759411827228177571669;-0.2828345393291038512018076289678;-0.066828697209718235239250816448475;-0.29275599242393735011091848718934;-0.26585465516212780645588509287336;-0.17315784569518244406793883172213;-0.02726832084934022182309831805469;0.13428980388962818981468672063784;0.31799810122950322721635529887863;-0.49562419120591943988429761702719;-0.12982552976047290194117067585466;-0.40449404013741485641730832867324;-0.17750329164697953299167920704349;
-0.31479969279215758160006544130738;-0.24065472842474427972447870160977;-0.026146246974349696134964915472665;-0.26490550153056335869194981569308;-0.43054150738873797621408812119626;0.17525038478016163878692168509588;-0.33094713386006502364722337006242;0.2443649357116342013540588595788;0.41027096416029718017881577907247;-0.39405051449473110780630236149591;-0.22753096591860400010887133248616;-0.20313282664763765428261876877514;0.44589259627092936444370252502267;0.36520346140737758311445304570952;-0.15318820463868770831439292123832;-0.31393020270469629284804113922291;-0.4436767769594718302528235653881;-0.45641638741537110535162469204806;0.21757560373703455081084712219308;-0.1496148195118169321737866539479;-0.41004975163152151962364655446436;0.1711017656659024055443296674639;-0.13329885467233065776682110481488;0.38352205198564792709703397122212;0.36620565309949004717537945907679;-0.26819628245669518973315348375763;0.49579296073893497354134751731181;-0.30429306690453261641238213996985;0.41142930629459950608861618093215;-0.20050766332932190572080344281858;0.38545670007653864974628277195734;0.36836478168680741873686201870441;-0.15077263742484109387831381354772;-0.0031038276143079968072413521440467;-0.04859301236502894250079975790868;0.49169002654067117674685505335219;0.20596362549729607671622488851426;-0.30023867171712503854053011309588;-0.0673575169583544575147016075789;0.28453669433387596132689623118495;-0.38699187862386369429756882709626;-0.49052465962666852439255649187544;0.16510144506333446212664739505271;0.47358172005242460400609161297325;0.49728015527479441093561263187439;-0.23356076131289260633394633259741;0.27369991244366220772832321017631;0.25853702683239720983010556665249;0.19791318057719242684555638334132;-0.16629880716331429946208686487807;-0.40925811564025449396098110810271;0.0021901503942672873037622593983542;-0.035177372478140955802672351637739;0.03462308941166358788876777907717;0.48701534715595118374409366879263;-0.098722324299586938778361400181893;0.27676011277667755816622729980736;0.39765093813467811134643170589698;0.36143319757759651000839085099869;0.15037033895574658526328448715503;0.075037233335646713605626700882567;-0.18637804448025163672753024002304;0.43183755083480535041928760620067;-0.2863532368715133724634824829991;-0.031802570984971356704562595041352;-0.24077501221323222013737108682108;0.32023009156153003917921751053655;0.14551769909826717253054084721953;0.21608756029016218391802794940304;-0.33210068888601673720017970481422;-0.16932016971657570802989312142017;0.23088174733219402057216029788833;-0.32188200248294607241916764905909;-0.37338409166705543995590232952964;0.43480413608604007169589067416382;-0.25062163971309614485249994686455;0.14603612767753371137757767428411;0.10682995286938845591606650486938;0.17986172284012325039981305963011;0.18688092698923686185707992990501;-0.29854715758130934144531920537702;
0.3731271266812077325170093899942;-0.052628307850255351407753323655925;-0.12064826203575751417673700416344;-0.29453961855144600301414925525023;-0.055838887459879193997380752989557;0.047789948152403227688012066209922;0.43225727273091463231935449584853;0.139699414853013292869832184806;0.22470642523767736520312610082328;0.44033490037332545519177529058652;0.051314822089907119462282025779132;0.39921817709011864216961384954629;0.45567661354910671267504085335531;-0.35469441224913600407830926997121;0.31778089543931076210725450437167;-0.45309025304142513945748760306742;-0.47175166087055336872069233322691;-0.45631261310099607841905822169792;-0.3252755554624280343034570250893;0.48488568019197142433540648198687;0.046953547408049245426298057282111;0.46664179479187650745330984136672;0.18574199692473647438362149841851;-0.097656836703253979692362918285653;0.10788316613463533322203602438094;0.26248661457228872340152747710817;0.15719595336643221727968011691701;-0.43392998221237177869369361360441;-0.12566030903752267722239821523544;-0.37767060628263349197908382848254;0.24999421416734990408770045178244;-0.14991024860719603939429589445353;0.29151842757583878995575332737644;0.10874620161970238729765014795703;0.41049645836681225574693598900922;-0.18261825979838630651386210956844;0.087809460651496862304554724687478;0.0003358683028509279466788939316757;0.093949550828458461282366442901548;-0.34241982959998595870132476193248;-0.44990641319058199965041922041564;0.3113703749163024836477120516065;-0.24975314643785001544884494251164;0.051468736008066784393122361507267;-0.42439349315202312684647267815308;-0.49498770096632072057474260873278;-0.043310446153510706590594736553612;0.32197325962642220353870925464435;0.25427085422761119826162712342921;0.2837164044533763140876203578955;-0.20930150764721022760284085961757;0.066146294537046235184618581115501;0.36780397863854341622413812729064;-0.34226980876637425055264429829549;-0.28589965313095022647615905952989;-0.26601658653791770969831986803911;-0.075282243562433348582629832890234;-0.46560258252914321630555605224799;-0.40986129321283043536183754440572;-0.14940126586459523405636673487606;-0.10411891760484209834558555485273;-0.33034812686299264150591170619009;-0.17371107580297934225299627541972;-0.34059474135749245871096491100616;0.10244155758336714878709017284564;0.32787166877492379679637224398903;-0.43445576149173620317256450107379;-0.21434801191651353668987667333568;-0.42095915366726849304868096623977;-0.09009991037247616629812796418264;0.19874988172648577755552423695917;0.48679960988159975965317016743938;0.18556646039165236583556861660327;0.1446459280975711525485394304269;-0.06376572734548185961145350120205;0.33690668064933970704544208274456;0.1336851526114316568438766807958;-0.17672926738267924484659943118459;-0.26841425157177728477719824695669;-0.20722217166025136414475582569139;-0.49809043095190475014533149078488;
-0.40270978543212365696746246612747;-0.45119452016632854984834466449684;-0.49898668643948701495460795740655;0.26201815032303232833044148719637;0.005445959364282937364976078242762;-0.047628050949880706976813371511525;-0.15855391176400390751410895973095;0.014930501203511692409620081889443;0.23224524185803585574205953889759;0.35454283671688102685948251746595;-0.47586462927788386600980174989672;0.13694725789537920412897165078903;-0.30034524300974146937548425739806;0.068241958696695803610055008903146;-0.41811251393924026009685235294455;0.35883543256985483971277517412091;0.46442304870366613034349256849964;0.46229452148377736531159598598606;0.24872421396292421214013756980421;-0.11892850059386977923381323307694;-0.49922552354919191852644644313841;0.21250957137891690607034433924127;0.066434033954272275757091392733855;-0.15797690630514232834613608247309;-0.02311862701779848761063362871937;-0.13511520587936942661144712474197;0.3444696673457825486508454559953;-0.20431090597281870158141714455269;0.41485219890299995793014886658057;-0.067474262821289821001613518092199;0.48391710226995776622516132192686;0.37915924627312402872547636434319;0.049444275265979498179547135805478;0.27768949049899438463739897997584;0.26259084671449550718591581244254;-0.31985866423901682109587341074075;-0.026693523966275278791471237127553;0.16568403576866641557785442273598;-0.33733962728385064044900332191901;0.41022636592739836203236336586997;-0.053517483221537931470379589882214;0.46966352432169966579778019877267;0.38691895478425841758962633321062;-0.36052529773739788732100919332879;-0.41267628343606416185807006513642;0.10402974494622785339714710062253;-0.47998886553420511136280879327387;-0.47269260038901067533245736740355;-0.4095929213609438290788489211991;0.44360321372982691734421223372919;0.47753940191763311062800312356558;0.20271408165893567421278476103907;0.34619718365190732534131257125409;-0.078859456946969774815414666591096;0.030061901698709037056289616884897;0.10543579361552968265414165216498;-0.21675634540824734175501475874626;-0.29028095011800936209311885249917;0.23796031306661735715834993243334;0.34033766309708346486928576268838;-0.27364571155986450179398161708377;0.32544975535433018354325440668617;-0.17406716287222662176148446633306;-0.21347876683360034189007592431153;-0.084507960527568315445279267805745;-0.31870901002177509653279230406042;-0.063283493415373481827401747068507;0.17015505911829753582509283660329;0.36020959185244572076101121638203;-0.25672378520955430047933987225406;-0.21469698670480580338093545833544;-0.13919798930133442382839348283596;-0.44500261326060008837401937853429;0.069228214074503635622193087328924;0.19014555379709685567490851099137;0.078879763872872876717678991553839;0.3060097290289740534774409752572;0.065713676059369396931231221969938;0.41940143192793633009074483197764;-0.44480272158333772347660328705388;0.17497423256879673925112683718908;
-0.066822862261766452496303259067645;0.28461700202865120035156110134267;-0.43724357392638985020383302071423;0.016548389611157923034800987238668;-0.21254727043220075777263389227301;-0.24750170962999634705070661766513;0.27482973989514308810200304833415;0.2898688387144054967592410321231;0.20925325436393316103078632295365;0.1947689901309526405714933616764;-0.48328500681412678297022011975059;-0.095015586729056675241444906987454;-0.012484548143953676929696072761544;0.021317914419857569158223142835595;0.25724755087646711260163101542275;-0.29103697130535449710819762003666;0.24361883349351698413443045865279;-0.45699942974757501445992602384649;-0.44621398069286560827961807262909;-0.33572890534213123414630786101043;-0.0379979443833711461042668133814;0.28271352990216414013957546558231;0.27430881334088708101148768037092;-0.067999381906839351241700342143304;-0.41447365336764863119611845831969;0.27408563290473719753492787276627;0.089761712531008536197774105858116;0.021791335801153284557063471993388;-0.44178005433377492972013556027377;0.48993647229279801980084130264004;-0.44572517897286834109848996376968;-0.47981071558945742605573059336166;-0.44733119549193006703191599626734;-0.45144083807749052494884267616726;-0.37150465196849613569440862193005;0.091372953816160978890437149857462;0.31496184636867075035127072624164;0.31538220981695980205117280092963;-0.22782186794979164545793537399732;-0.46222141235064223563355767510075;-0.26003209899745127753334372755489;-0.094509104102804469826892841410881;0.25590724187809743561672348732827;0.19837553060519927394800276942988;0.20721517395220095947294680627238;0.018220692170889257743837674752285;-0.44830811685638083385896379695623;0.32753431936224025600168374694476;0.26999635752353634554623340591206;-0.14932110935149331409910189449874;0.10591263447278524700845281358852;0.43038488918588535536713379769935;0.31560696538464011462465919066744;-0.47600816750070523708515679572884;0.064514519509065601510222620618151;-0.36052753364464901197905533081212;0.0083074839340565899414858819227447;0.43163991931726714001982259105716;0.2687420891392727217983349419228;0.26083354257232704842550674584345;0.040687901145480764864004186165403;0.13884678611881598464528053682443;-0.47761856819251108374757563979074;0.39649597983907092224598045504536;0.175485056400946665133844248885;-0.10809148433866190563978904037867;0.0031317355228824982245339203501544;0.44855225897731998419004639799823;0.049388803427139048307648039326523;-0.079086955037886777497568857597798;-0.055423641835506035069336405740614;0.090614616211532911238535348275036;0.4460354798127888487080383583816;-0.32251367739156172609327200007101;0.39967432752738862866692670650082;0.40309746491973830195831851597177;0.20949125054894998654297921802936;-0.3254040246527176161173144919303;0.45769495707457907851534173460095;0.2141094025628426655849523285724;0.16806707172721824239403076717281;
-0.39412501981790087901558194971585;0.43434109866939268895791315117094;-0.20931817988641801542293308102671;-0.12808810184503349738349697872763;-0.37207449875131026750807450298453;0.4811719973612629819292862975999;-0.37154164209421669529120890729246;-0.10711700388232368863494770039324;-0.44110274053083670109387526281353;0.32019477555148617708979941198777;-0.42010791579818296259674070824985;0.37518602706857778761317945281917;-0.25255149254419678728211806628678;0.35646464537231314917420377241797;0.17770966903809543024905792663048;-0.47709862589094309548443106905324;0.39745699335106704497277974041936;0.38875351727110996069569637256791;-0.049766870466835234909641627609744;0.054942679684160014574878516668832;-0.49054014030844728111446784168947;-0.071976729046636475639608931942348;-0.41492998450188389725212800840382;-0.4680030177500870136597654891375;0.3813790287870382211821151940967;0.16215724773681980397377344615961;-0.44043220924737930266346097596397;0.077318394259837386339739850882324;0.30389942342247744377914386859629;-0.43288885610586846919289882862358;-0.080891150579335713288742226723116;0.22605776677321837153655792462814;-0.043311534122098149790502930045477;0.44510366176228749468535283995152;-0.25871662050337107530140201561153;-0.24656072374612064690424517721112;-0.45888162946314325907337661192287;0.20414524591367469441571813604241;-0.20629321983150356034641959013243;0.24338575122597946864821949475299;0.062613797530875064945021790663304;0.099683606573657407290411924805085;-0.28663520984161017235436474948074;-0.11628306137883019644174709128492;0.025562043133834099623014068924931;0.22541032796398793869308008197549;-0.22073278728391632075300776705262;-0.11608438372349427769592011827626;0.475023887921500298503474368772;0.37177608511512505451435117720393;0.21539115622009430417449493688764;0.2492088280689008228385716847697;-0.16382417319431336055757242320396;-0.27608287203662956743599465880834;-0.030315111373462440280679430770761;0.42585872873056379583900366014859;0.20051227362873050297231714012014;0.0062397421511302918195607247753287;-0.46448143616956244494886618667806;-0.44465986636238369333895548152213;0.20161397096713234988740737207991;-0.11956220292611248467995466171487;0.027418162717892810564812577922567;0.36014189897973403198250252899015;0.058706571911874769198469437014865;-0.15548398745760308448105035949993;-0.21232723264422515008220671006711;0.2641386644016329166007039930264;0.30048949626826798597889478514844;-0.061837156471891432940601873724518;-0.43154730355004849995381732696842;-0.14465090727893803457249077837332;-0.27629134256714599215953853672545;-0.19783280329531999219838667158911;0.10020926170521138320879117600271;-0.34195601769352923504641239560442;0.39995508551750935666291297820862;0.0063273186394011641381363020286699;0.30269917455541683892761284369044;-0.21425217475574864778309347457252;0.093945039583637313107544741797028;
-0.29846928677062922741214379129815;0.35124438711580263650091637828154;-0.064003133218905383650110252347076;-0.05211830046906748559187860792008;-0.059177285038536517336460462956893;0.20458170842946679646168206545553;0.17133464472626797059362502295699;-0.3039863616309697036399484204594;0.22103243577120187945972418219753;0.40308552372769579363875891431235;-0.43393925828970858482591665961081;-0.097838012936653645512663501904171;0.27945112346046280249467486100912;-0.31240473391573120309772093605716;0.10044506417410957455071951471837;-0.030469937188470790079275474226961;-0.026890999936474618836612648919981;0.25580369090251997565843566917465;0.33811297718112337529206001818238;0.18034238364871821302948262655264;-0.26698246359794092219530625698098;-0.32051188573406719228842121083289;-0.16239426903172415883602752728621;-0.15492983738158994100331256049685;0.4547858668862591047243881803297;-0.32862906738317476662558647149126;0.36013172288942701948499802711012;0.083321559244460469129123225684452;0.42639443624300477075905746460194;-0.4519251745936508912748763577838;-0.022388177594451639379480312186388;-0.23023197237012299476432986011787;-0.027712298153869687616923656037216;-0.24687722363246014656290583388909;-0.2252782553648956520575552531227;-0.22117657928747969098282055711024;-0.23323301340104421464083372939058;-0.17218656840343293801254276331747;-0.38250275571724468015588627167745;0.053507346972680995544902060601089;0.40104578505133092747314549342263;0.11358885770835158712799284330686;0.34372561580482080545451140096702;-0.018769472508518396380861048555744;-0.090819997651677517036539200034895;-0.47586790441550730346165209994069;-0.20763981534618225488486586982617;0.34350888952509467388907182794355;-0.11061939562888399579687614959767;-0.13524065589278111421123185209581;0.23876760459957568905053904018132;-0.079246812337500679990220930903888;-0.33670158200196109721247239576769;-0.073825453649118466525891335550114;0.15904499011054440416046418249607;-0.07238885403154046715989977656136;-0.31902677846986554621722120828053;0.011778307395971304369353127583508;-0.47076217018706972838870683517598;-0.16241634921880121478210412533372;0.11458249401993841898317327832046;0.079582093741128609454271725098806;-0.48197650538328645763996860296174;0.029562358019685305854373780221067;-0.28396720385892793014903645598679;-0.37376928317011109959011605496926;0.044583593412893696150689493151731;0.20995962314919869307061617291765;-0.080980669034343394363517631973082;-0.39021764519529550385712468596466;0.42825381003244783473249412963924;0.26219237289246721811508678001701;0.1215463670321307032562430094913;-0.29021527849389006092906129197218;0.40378103299580458962481088747154;0.022353587255341228479110782245698;-0.095810361359056545049739384012355;0.23344610196832721316084757745557;-0.29388812799715985368820270196011;-0.2980108447872003019085695996182;0.38774693409355720508102649546345;
0.11011927401469687182178347484296;0.1919421932958018661707910723635;-0.15595028049066958497625989821245;-0.1964501342641663539367868906993;0.10764817916439665956840343596923;-0.11021391339085077898385378603052;-0.39234962151339675129335660130891;0.17497400557971590218109270153946;0.14515944330620386693020407165022;0.29854361644825733179686721996404;-0.084300933021371024511658731626085;-0.45546925191837578372755501732172;0.020111794080418403385390746507255;0.39439748416284636789441719884053;0.3156706275301265907096137652843;-0.3558601087294852027831382201839;0.33247700045688738379467963568459;-0.19721591219974188291530481365044;0.33767804483799629400309072480013;-0.29073838951573977018583150311315;-0.49573616257710861887630926503334;-0.018881527903981003280176054204276;-0.073838548197357467550716592086246;0.32682593181805397186678874277277;-0.16939871123996241841780374670634;0.35008211281406120818360250268597;-0.33333434945043710628809208174061;-0.065592799083643821278499785876193;-0.32081074047479896105272700879141;0.43828360879893285551034409763815;-0.40313336951200168245534882771608;-0.024005315288742994084270065968667;-0.44592896816856703035014675151615;-0.15307346535415014554537549429369;0.25644612835585572918617458526569;-0.16892005031960383165667849425517;-0.24100885089709148112468994895607;-0.23222043379262718998390369051776;0.29096419902321091210950498862076;-0.25433366614094926605460500468325;0.27163889701868626502800907474011;0.11773971543308980880482295106049;0.15628980130855565922054495331395;-0.11084315548618089986021573167818;-0.46404850310683398717515046882909;0.059019646423186501726920738519766;-0.24217200013099338118394143748446;0.28134950485472970393985292503203;-0.056083213469708598220009321266843;-0.42981903423696027344291792360309;-0.24101128389650483541117864660919;0.40420723996071067363189399657131;-0.088600677146715198229109944350057;-0.2705365513230340024364295459236;-0.45472140288402485008845133052091;0.30077718841413386696714837853506;0.41092490804041975627214355881733;0.16337179462293183185295220027911;-0.17166835930583146385686177382013;-0.47091118628765921139134320583253;0.27648935726542284152529305174539;-0.11656645716184989292063534094268;-0.4030369458793057191314801457338;0.48511616438052979072281800654309;-0.1615949412115444405735331656615;0.31442272324820047524340793643205;-0.1126177595356643995616607867305;0.31404909899108890414254346978851;-0.41561693725789178310847660213767;-0.31204320135653623724536487316072;-0.0073215460140846257836022559217781;0.3087390552062707627101190155372;0.41793547201322350792551674203423;0.32585354625052204147195311634277;0.38488718094794627244681350930477;0.060735311921852032368551732588458;0.3554676671059980308520209746348;0.29272886109336559989912984747207;0.26771845591620702098367701182724;0.063089266574997998615614847039978;0.40295704023512812774754365818808;
0.24211595592276813349030817335006;-0.40488938054767709129322383887484;-0.31738330396472413941211243582075;-0.39055989763594961550197126598505;-0.26626545692704728374167189031141;0.42402535013123920926148002763512;-0.34693843568097471052880109709804;0.31002456240292530775803925280343;-0.029966355790210785770000256889034;-0.31779005281739802768470326554962;-0.30018554263343733001789814807125;0.022935879551594262615310526598478;0.31229253374758980665859553482733;-0.055889891736627839158302322175587;-0.40524165009451423857811391826544;0.35358339599756183346812576928642;-0.053166246655946269861203745676903;0.37797399462604353015393598980154;-0.3363027362977769052498899782222;0.11187238341651906115004067032714;0.25756726993440282047487244199147;0.35814406994479097701145065002493;-0.0077336923592858375364755829650676;0.090035907714805629709076129074674;-0.32632764687317045160241946177848;-0.30351229152231240515646959465812;0.42906089070362063431218757614261;-0.40941515178682430509127243567491;-0.0055042568582446826930265615374083;-0.060447431264656237281940320826834;-0.46254461002274666059363994463638;0.47102033286770672582122188032372;-0.31953756435286762016545480946661;-0.1569209993264856772832160913822;0.46220294678051887515835005615372;0.18258568497751626047431727783987;0.30582778100420571210094067282625;-0.14029395614266831904259902330523;-0.18875616377388249045310431029066;0.32806645651840304900304090551799;-0.43729220131011659056241569487611;-0.0086181563936522098678949532768456;-0.13380184219314666949074421609112;0.28599979439157874328003572372836;-0.072158318990929781744370075102779;-0.04858467840120478387078151172318;0.48098841724642027450897785456618;0.25218472026177007894176540503395;-0.23856217082222380687639429197588;0.4726245787626586203344913883484;-0.27107423108442540993223701661918;-0.33814435047146806923024087154772;-0.023773954418400411459089127674815;-0.27605714305118600471189438394504;0.15046429708336150898873029291281;-0.019589428195289582124161142928642;-0.23383268016229236119229994983471;-0.38258174143749729134711401457025;-0.36058757402709956663144907906826;0.10069221869135613900425596511923;0.2566551935201545342479789724166;0.15033230431770727708595813965076;0.37545238582857842768447653725161;0.4553089212043561762044419083395;-0.11750324125187583401697111185058;0.37681454877527120750357880751835;-0.34061542263598088009501907436061;0.48709524590682540257091659441357;0.13674385804714517256286399060627;0.11669105427963399890245455026161;0.05259247507625419704169189571985;-0.015244150641577358662459573679371;0.2059502094654003245821627388068;0.068302801624106290745430669630878;-0.41179617674294222151587518965243;0.34549318918969262881546455901116;0.47618731524139512600868329172954;0.32522851947934738880974236963084;0.41493025786170989466228320452501;0.23304117715922512132920019212179;0.21148832300595288291589213258703;
0.01896508306644950625496903739986;-0.23783179183829988856402337660256;0.08498183298073280766971038246993;-0.3992671595979384591146299499087;0.37189950155124629205261044262443;0.30035255703306062979862645079265;0.08692640305019261326435753289843;-0.35530546471408375186484818186727;-0.49282186204782613136998747904727;0.030564697986694033815524562669452;0.21015186643771310848194389109267;0.26618268830087910004067452973686;0.060330469664942265595186654536519;-0.15004260555183868142137271206593;0.083270574443645495321675298328046;0.21311832688889720266445237939479;0.29618813539381261268346179349464;0.27685090745704732384524504595902;-0.26340833640159821982251742156222;-0.16907849348124054378317282498756;0.45464323637412817902259121183306;0.291114782143851558160463355307;0.12491239262413278421348650226719;0.48859900951174872751892053202027;-0.15160183913558539225974186592794;-0.44961422412350471322639577920199;0.018933645527920095474883055430837;-0.037350884355793256830224891018588;-0.25934612607811413642622255792958;0.12467881495777022315962767606834;0.13620443792058622989316063467413;-0.20451811246619977513461208218359;0.19294686524418758200027923521702;0.32356392628218466622769255991443;0.18561847003386866550300737799262;0.033041875385928953789971274090931;0.16822567601040927520728018862428;0.054370566877393278204522175656166;-0.15179962938345675782514376805921;-0.28905828949060075050425666631781;0.088251863928925033953021284105489;-0.34234124713683200535996320468257;0.12157798435358246891269118350465;-0.39626317459976545531930014476529;0.18542454773146499480418469829601;-0.32205923664370189607453198732401;0.071107158670604908579093716980424;-0.44329680208316518674749318051909;0.077332264578042542169100670435;-0.11045178430517538226141027735139;-0.43443504300151553065845178025484;-0.2114424767987652664658071444137;0.12778293058537693038800853173598;0.15611256674250140186188673396828;0.36101339342650862196393291014829;-0.33694543930542619758483624536893;-0.10672426200930673623190614307532;-0.40049192656547155655388792183658;0.26227403865904796997909897982026;-0.47876606053076997682182991411537;-0.4179509612249753258694795476913;0.39806773797310202045451887897798;0.22664715977710570005143608796061;0.24978072905503889700185027322732;0.13465073710126396200337239861256;0.12686609560776895833100752497558;0.063493586142716273990060926735168;0.13437505441033503750247746211244;-0.13092701568360531894086307147518;0.12590653133916684947024577923003;0.15942255770499502709469652472762;-0.49346333907903500159974896632775;0.29781633640378490923694698722102;-0.23635362508532509195902093779296;-0.077855926389035268186944449553266;-0.48805246277745467642361631988024;-0.023230747214139590983705829785322;0.36757464078428270237708375134389;-0.430035412605873856861649073835;0.13207630932774194754131258378038;0.42621598284781758714245825103717;
-0.22572760486467252638576042045315;0.29435935618559549986628098849906;0.34212971706705097574285900918767;0.17795650450927213981344721105415;0.16012799872891370078775707952445;0.33208409930149840327828769659391;0.015227762618023943375078488315921;-0.18108683012527676536862486500468;0.28042090692339116664300036063651;0.27867429070877303143305425692233;0.1985181410554943681745498906821;-0.32201498884797308264182902348693;0.36129697347443434640723580741906;-0.083113122131516281587693129040417;0.31545204396651005396279288106598;-0.44884576493255029516760146179877;-0.27725875680538192291635368746938;-0.29961504513692460704987752251327;-0.21653997839775968037301367985492;0.44296971259827466749214863739326;0.44245647014218669745844181306893;0.050177794190169100474463448335882;-0.3637658220077762960542600012559;-0.41188002132666023946683253598167;0.15383245376455789710234967060387;0.10977957107902169830992988863727;-0.072610948777710571100385550380452;0.35833606013907837173348980286391;0.11553016187764120203951279108878;0.10872867106954564597742773912614;0.40402897521203839925618694906007;0.4002175061649966281152046576608;0.47232771877808887861505127148121;0.34961263768958661390939823832014;0.21019518421293370558089463884244;-0.10784957403481454374372106030933;-0.40331778423785424880776417921879;-0.4822074007178094867676065859996;-0.46218266048699918613351655949373;0.17180949789265487215317307345686;0.11899998991250415603104784167954;0.34714513723987316939911806912278;-0.34336440225298986428370540124888;0.22756478906400179340607792255469;0.14086073245431274258976372948382;-0.15241396864816469935988152428763;-0.04455216157951996658326265787764;0.19745058702835349695448030615808;-0.26333801758862968034335949596425;-0.29029614947532406121766257456329;0.34991421454939997115474170641392;-0.22792064131578848584780416786089;-0.03857592642054963327780114923371;-0.35579244437374168974486110528233;0.17858297831368430408360836736392;-0.43430739912914101408247802282858;0.38728418925620167190260190182016;-0.0029327067336483714221628815721488;0.35137002421046736877485727745807;-0.30911226808734276749746072709968;-0.34504275652155452780434075066296;0.16242538190958522026363652912551;0.21831167221389535804121351247886;-0.35980679857835062840365480951732;-0.023688195369322984085158623202005;0.15588808354262184696636950320681;0.43863660712854302126118000160204;0.27971618390712715829238277365221;0.36110872114877723415560240027844;0.17028308690634319511048033746192;-0.32811833064893547451390531932702;0.44151822217506453416291378744063;-0.2098745880671619712387609979487;0.40826947316365680418215333702392;0.2913276432938941562511558913684;-0.26400944698594064341534703999059;0.43608921279109225110914849210531;0.14341938774718476778957665374037;0.00083399088213265137881080590886995;0.37930693191949993448019995412324;-0.2739948233082361017665107283392;
-0.42954659446138965250838737119921;-0.15703448730647534548054977676657;-0.025870252339753097015062621721881;0.31418415457892467923528556639212;0.1621276152416870619532573982724;-0.15146077329787827059348614966439;0.013811659974616308232953088008799;0.39751059936113652959477349213557;0.47896738986954501271497974812519;-0.099066150753485959778998903857428;0.17358087398526211853067025003838;0.057579053146330716472789390536491;0.02827355713383838953234317159513;0.3091762727990451375958969038038;-0.24083206835956411095978069170087;0.092108783089047574499375059531303;0.47533096075595004936786835969542;0.059527981373828420252891646669013;0.10786478239959385039270500783459;0.39656900712345999338026558689307;-0.3889821172196341603211067194934;-0.27115738317305615456831446863362;0.099773190512012832620314384257654;0.054872319666104729662947647739202;-0.22960846067979062690156411008502;0.1195354192153618155813887824479;-0.15607227392139383370661676053714;-0.23727420729618170502916996156273;0.30596986826388539171261982119177;0.32733645201841676808385273034219;0.31872058653350177070961990466458;-0.18045885628881624951347362184606;-0.18129586597649205437221553438576;0.33967273897178473784919106037705;-0.41333849299751324046781064680545;-0.18736134349164818013733224688622;0.04789208542386091949083493091166;0.46215682394077317596270404465031;0.19683513248944606299772885904531;-0.041689939334636827439339867851231;-0.22971959030755717545702054849244;-0.11896191187641663722374119060987;-0.31455948710317127581248541901005;0.19959750289697841818536971914;0.026407413608865781817769402550766;-0.37372308206939652830413933770615;0.15677747073277215061892775338492;-0.25838086546485228289782298816135;0.18097753957011597503168331968482;-0.19737571483192639654191680165241;-0.42291362854192493525573581791832;-0.11613016429702999188222634074918;0.22747964966292300026395878376206;-0.16798867227597519269366443950275;0.49587567738338333978020955328248;0.4932558069995782723538013669895;0.26231117211304433300966820752365;-0.40227111890897637724862079267041;-0.30387887852360773166537910583429;-0.34752217643233251909151704239775;-0.25610668626009192028192273937748;-0.17110663645044749126000738215225;-0.11607027318836038443095048933174;0.14677886805768936007154934486607;0.14937567329296563833906930085504;0.37054869827488334799170388578204;0.3048723897764583634639734555094;0.45297396940290557409980465308763;-0.055934356119866190937273131567053;0.19163670933800147633263577517937;0.42056032741211091252608866852825;-0.42698269297799573696039487913367;-0.020764898352911231871331665388425;-0.047881288993390613839551406272221;-0.16760931397127165620730693262885;0.056671533179097455246164827258326;-0.10848558340408687161726675185491;0.37570668558153474947403083206154;0.2570470939728835002568985146354;-0.16626731404685779480701057764236;-0.15189142495027918577932268817676;
-0.44212899078861012114316508814227;-0.075996672947758914240523608896183;0.22948758086945841849768612519256;-0.32788833223496072211133878226974;0.029617507315980007298605869436869;-0.10108557377794319398489619743486;-0.34090174154490593405597564924392;0.15914157903601811039351332510705;0.034554689423233919676192726910813;-0.070397318832079891492981005285401;0.014538449259676511360339645761997;0.38315312708569615463005675337627;-0.44975734152914265129297177736589;-0.00664524515562431306037183276203;-0.1386071931472946383578914719692;0.49064428240430002503558171156328;-0.19168869397604015869518434556085;0.38949611938357531215615381370299;0.094702016951479062178975709684892;-0.45548023891091338199998972413596;-0.1737506826696567641121760061651;-0.11674483274143920841225963158649;-0.19121670337513763104908548484673;0.1815953782220678380809886220959;-0.45502470640071984719909892191936;-0.32683399800699419746052853952278;-0.077946372570193711570851746728295;-0.25915087051739610357614651547919;-0.26569201106136330903240150291822;-0.3952932981741754114857201329869;0.061338299648323491020107667281991;-0.086713672758573556720307351497468;-0.40678710753871666350178770699131;0.11886212238485771575113858489203;-0.046679736914148950432945639477111;-0.26088794895524525241370383810136;0.27887142523481711631205826051882;-0.39634153997421645021503877615032;-0.3593652657764470625956221283559;-0.12535331298615925987860464374535;0.27188978455209455997731993193156;0.35774470547881431770065319142304;0.35661848130770401610334374709055;0.19600467812235533582310154088191;0.30186544781075841381579039079952;0.01557512061778121292832111066673;-0.25759013807581021548998023718013;0.17447546052274254257952179614222;-0.10442061302079963525102357380092;0.22497352154052063788469695282402;-0.28277112241113955271032409655163;0.33923776337569866434762388962554;-0.074076220401256609449092138675041;-0.34181392217559497526124800970138;0.0049787923221499275072687851206865;-0.38280189616752924308684669085778;0.30409447601765160484887928760145;-0.25542978791729331611293218884384;0.45068537060667668292524012940703;-0.38716195789536483884418771594937;0.14600690102224878064163249291596;0.046626129218875211890349419263657;0.35450098500781956900596014747862;-0.063942853668311705472859785004403;-0.21054715437528609411899083170283;0.11043889358945757628305273101432;0.095143635527504488713645969255595;0.1121687809017020143187437497545;0.35877465610745029600536781799747;0.24587487575039823628486601592158;-0.11868937994847911232554338312184;-0.4625755328364066776281049442332;-0.27288780325931605297284932021284;-0.038100382488526429725084199162666;0.11708771616030488882387317062239;-0.24761244188581865710574447803083;0.31750107692634910172557738405885;0.069614155776402841802052989805816;0.12236929514154093467936945671681;-0.11701248303085193258610274824605;-0.36577575059848677074825218369369;
-0.24047898345211632387119493614591;0.46954198260095303396610688650981;0.26713517793324081939232428339892;-0.30454543422377167161130273598246;0.11402586369016520784214208106278;0.33983717922208878103873530562851;-0.4703856959279235083748460510833;-0.29308275859179144795518823229941;-0.49336904651819118994282575840771;0.0233671498215266559839164983714;-0.14245530987622789798052735932288;0.36224228296025495765775303880218;0.35169938067343420318167090954375;0.20470872078940738347796468588058;-0.04935446988074931873313744290499;0.28481697909146241887157202654635;0.48441910494364259776034487003926;0.20814749645426378066304096137173;-0.23552968630769804958546842499345;-0.098534664933226101535268526276923;0.45481860922487482579157358486555;0.029817911346949887985147142899223;0.27797359358893292125003426917829;0.18669555912764890237554027407896;0.1423297994829351154066898743622;-0.15832760350312824471075145993382;0.093156799878760465638549703726312;0.2541813184725988383760864053329;-0.47031802155356627892501819587778;-0.49182200575459728009164450668322;-0.45372463744268076712984338882961;0.069240370425451391866999983903952;-0.21535028429750252554342182520486;-0.22150909286298409162085931711772;0.0136969817160649265375127470179;-0.027679592846742984146857224914129;0.36217113074444451381594944905373;-0.13332576406508545030504819806083;0.48081430519895274056096923231962;0.094782012565338247256363501946907;-0.15659483532268636540862871697755;0.19066978480544094498583262975444;0.29187362563152086103457349963719;0.46277017744628878848089925668319;-0.19424486718827782549823268709588;-0.18767798564227788915559358429164;-0.11801661386049627777694581709511;0.39975820960538177573084794858005;0.25287802881645327079951357518439;-0.047138776126167514224363230823656;-0.1675903778150848455474886122829;0.27393520494301348833232623292133;0.31335029888542254017380628283718;0.31399355451740462719101287802914;0.18931526015543831409360109319095;0.38476817953737851851769846689422;0.26730759720619456931700597124291;0.14721997715061063694008680613479;-0.38851862233719325345759898482356;-0.49297388663247837525815953085839;0.47648489769005530902745704224799;0.44403810327790693701643931490253;-0.051728546921184614948430180447758;-0.11318053723701859691885829306557;0.13658724671237054693051504727919;0.35596758943142114972602030320559;-0.18648484678249105384040262833878;0.35429628164341375740065132049494;-0.13873289368983932057233232626459;-0.1214814736684223794860315592814;-0.1411969745245255647425608458434;-0.4529911363339743646250212805171;-0.36980295368208626616279843801749;-0.37338064988749547490343161371129;-0.043253118430203685296220328382333;-0.24844027180506883523136707481171;0.084770831139128755005174298275961;-0.16355604870530809913375946962333;0.29597380613976753682692333313753;-0.39734085407041003223937991606363;-0.22647859937972869559530408878345;
0.091804394726372917645562665711623;0.3040429598253302501120742817875;-0.2798409031170390193210550933145;-0.156330400047509587846406020617;0.13068237190356779553468413723749;0.1574193553909258858070074893476;0.41608492423574450214118769508786;0.29096109175226769760769229833386;-0.17101872957762581650698052726511;0.36807964045339791603339563152986;-0.31767772089833129500746622397855;-0.069926603777578755227750662015751;-0.30704020269343179627696827083128;-0.16151944638713272572871915144788;-0.23989487310043500212231037949095;-0.23681918068952206857247233529051;-0.34638091969189105379101079051907;0.28585204084125137580230102685164;0.15427649044692404167733457143186;0.2856897942848939386806250695372;0.48704630640660351303949937573634;0.44973102981485846285636398533825;-0.39653585207980213134248970163753;0.18142872481692495778560214603203;-0.44559052734617615731949058499595;-0.011687900844086107632335824746406;-0.036178110579530020629590580938384;-0.035953212469024276032314446638338;-0.46809242705212694701799591712188;0.4354258679015160504732762092317;-0.42569792138227924294113790892879;-0.45066955320283919039781039828085;0.29715030387157659319541380682494;-0.13884014842690162172544887653203;-0.48347425910254049341574500431307;-0.27459357274820761496414434077451;0.44385399744185116688299785892013;0.089126722246266942839554303645855;-0.2560860337299807332200884957274;-0.28612262646932834497803810336336;0.37363579387258138986283029225888;-0.024843172088897136351448580171564;0.27150368977509342638398948110989;0.32756523751441146696805617466453;0.26019720728144890564692559564719;0.3055025407577510732082259892195;0.12241083524575691043878578057047;-0.35370683662100266264616266198573;0.061928543770905952747796163748717;-0.13656580609620444510809988969413;-0.32759335779469661575902250660874;-0.054586090823103450286879478881019;0.10404933721801001844653455918888;0.36573941157436584692419501152472;-0.48719242479407187662587830345728;-0.18534752931928277774886737461202;-0.29549462124025405174165825883392;-0.00014507227509369391427185291831847;-0.39741298743157527084690627816599;0.49965088234189025673259720861097;-0.37642827135973205843200162235007;-0.067679212186237291959400863561314;0.32277396950647929685374037944712;0.1132970634592779246574423268612;0.12073532449906554386842572057503;0.34942264494276964459373857607716;-0.37330271863070918492155669810018;0.15284512329573252120695769917802;-0.21133196497279593817353315898799;0.19894427976104245292532368694083;-0.077929790903998596984791902286815;0.3487435721886403827696199186903;0.42768941945557514827669365331531;0.42506119673835118799587462490308;0.42654645745287611546814332541544;0.20132002788229375056516801123507;-0.32903475354847133704794259756454;-0.49484436551616717281376622850075;0.26571418332451024468809919198975;0.0091823009094635921201188466511667;0.48414032443274435113522713436396;
0.22613883010172530774184451729525;0.45459983840398365817492276619305;-0.085784441984982251483415893744677;-0.49347869068446992280030372057809;-0.42347236309571184564859436250117;0.07508692445950770899543158520828;0.46681073175067899772017199211405;-0.27368145411377120534979212607141;-0.042631259086360007160010354709812;0.069824669813031370324551971862093;0.2020316356633586885038766922662;-0.11401075191059795166381718445336;-0.062259410214665023008961952655227;0.018803049313693920296941541892011;0.13261376580638783995169660556712;-0.022892506561259184927337173576234;-0.43135363562408401971737248459249;0.029457238695728360511338905780576;0.043966029837948394920488226489397;-0.31908718236791766553750449020299;0.24408021097133403287671171710826;0.10604621532151115026465504342923;0.31950218233108718113300028562662;0.41434262234615004683035976995598;-0.30816845271429527119977365146042;0.41629469172373734231484831980197;-0.11417851748592783289737440099998;0.31579384882095029585258316728869;-0.054531939734188572543871487141587;0.34673592143587894653933290101122;0.066867530641954608938704041065648;0.37488951428102057494839982609847;0.11840315337380602489503189644893;0.13389213656919851658244624559302;-0.2931506130858141379036396756419;0.46421445458172982956313035174389;-0.4635278014977580185451699890109;0.35085509384303137370153535812278;0.3746245261426990325048791419249;-0.38269587557964068746940711207571;-0.2550971164984833228217553369177;-0.06716504832150754777941870088398;0.18152980457879286380062922034995;0.18669309441604120536339905811474;-0.48013689745712279099976171892195;-0.050624025238027170470189730622224;-0.08240092818332622748300764214946;0.24248129236117099694070020632353;0.35335840155840003706799734572996;-0.23045181031259265314048434447614;0.31849400490436041710751169375726;-0.11255062274923760545775053287798;0.070880451240684538838365824631182;0.097646320500236249984027381287888;-0.037266858464408247897381443181075;0.49171088045090027840444690809818;0.14030797073559631016337334585842;-0.29122541033493337669924017063749;0.18563895268071073374471779970918;-0.19920875461063491940194580820389;0.24726612424843519288941706690821;-0.40947025601271214156895439373329;-0.26560751799862347688474528695224;0.3481011210290425594848784385249;0.43259379144367204883536714987713;-0.028305274815417058587030396665796;0.11397011620472918824731323184096;0.31938032939954708044894005070091;0.41258819086122855424036970362067;0.27827884121425427998985924205044;0.17685752252558861741249529586639;-0.27728915246498464508562165065086;0.26274153413997292094705926501774;0.49246348801153361218752024797141;0.41052122477915176101959104926209;0.47631239893746102342930726081249;-0.15382007512664708226424181702896;-0.18187183880121537971064071825822;0.3033531377470350953728939202847;-0.13359164826361813460664507147158;0.0020481513972271381263112743909005;
0.11028629202808970521942910636426;0.12316647514515544070690111766453;-0.31588006396559414890035100142995;0.30872836129443759212165332428413;-0.4456789132849143242331990677485;-0.17772478111359618635489709959074;0.2413240031724135370438943937188;-0.24893805352665310248738705922733;0.46542221183944432194579121642164;0.25353427765469416232946286982042;-0.21702833779165814354072949754482;-0.26657474929128360807695230505487;-0.081526918685403182429638491157675;-0.26442236799950058490082938078558;0.057056580975952231327141817018855;0.25415892864060618538957214695984;-0.41754120879347667028014257084578;0.20814963755069071371650579749257;-0.46440758061011766510972620380926;-0.0083210051521836470023174570087576;0.17823565782691008774207830356318;0.27814386501649279725967289778055;0.36067034324363533848156748717884;-0.37875810949459043364129229303217;0.20685939282810239525645101821283;-0.26648793827258815403169478486234;-0.11189965455328521048983247965225;-0.0802759735755476655505447070027;-0.28248993769623054195250233533443;0.14440184931520061439869095920585;-0.31736175880762884649044508478255;0.37981649673371187247994384961203;-0.2054729306658447662847777337447;0.18223853738966133697374516486889;0.19176609632822050333089691775967;0.28076249355630389370475086252554;-0.035609054063331091466437783310539;-0.27713089949437780257213148615847;0.40960534095043932278912279798533;-0.45630074914802781771427930834761;0.090637131439036622282401367556304;-0.15438286428461683863488929091545;0.0050155644176894664809651658288203;0.24339558405551597886073977861088;-0.0055035113266403978826701859361492;-0.2855533018574047954274419680587;-0.3372681705484794623117750234087;-0.26002363436175390809523833013372;0.10744833497913142128510344264214;-0.46661777735189929883219406292483;0.19434970753156721734455913974671;0.42935435811462696609197564612259;0.22653035475804872422855851255008;0.090162061644143753902369553543394;-0.15173832607657883331242487656709;-0.19796600339147635283509885084641;-0.062744712734209617810421377726016;-0.088945035429740970656098397739697;0.33411285833676762635491286346223;0.47509376270035585942963507477543;0.20210194013176785432506221695803;-0.0074538907360104378341247866046615;-0.13212262059495216703908226918429;-0.34715803869610128984390939876903;0.45034598269416614702009837856167;-0.030936124149995580800975858437596;-0.42498343706582075718358737503877;-0.32299546868623263407016565906815;0.27675455622032607561067152346368;-0.1556021066571740552042513172637;-0.4092776882797464210739235568326;0.12704844247833557702165308000986;0.10731220831186172315341309513315;-0.0967645257625056043337963274098;0.22220491805915087990541678664158;0.49268121407596521255101151837152;0.34127315167265404038943188425037;0.095680136388914815981365791230928;-0.28884197744347234193540430169378;-0.29390245324877306565269918792183;0.074594429108754134460923523874953;
-0.2407833859383861074832111626165;-0.45888389676238833247978732288175;-0.20034758159550986045260856371897;0.12500294750803475629652439238271;0.39285978479633110183044664154295;0.36330944705873247091432176603121;0.065631118855194792161000805208459;0.43611339104520607801163123440347;0.41183827118601767924843670698465;0.35789211140253274212597034420469;-0.15787784754009398513474593528372;-0.20435049457936166339422356941213;-0.20841097625779253510458488563017;-0.39813867893352727911349120404338;-0.18135477499284524682821029273327;-0.12628901618886767543870064400835;0.49677464702919627015376136114355;0.30993595103742566099214172936627;0.20935025307174670583520992295234;0.034365010568777165644860360771418;0.099792800505301038072047958848998;-0.47093739133675632801967481100291;-0.29871435389481676425660339191381;-0.27414049402512502551232387304481;0.062488834584441432795642867858987;0.37178290038696693020625616554753;-0.49800430794443778514946075119951;-0.29568146807564044120653079517069;-0.48568716265306838275606082788727;0.47634727638766716228957420753432;0.32905074484837826265248850177159;0.092520859168922164883497316623107;-0.22436597456589552068706439058587;0.37035980052613992619114924309542;0.020900789118917462161562070832588;0.2799698784471941204188283336407;0.23128258080567964949381121186889;-0.04667963468888070011075797083322;0.33572404190897575659846552298404;0.049419393735211203377843958151061;0.20515457828860017563954443176044;0.46068993818320658206744155904744;0.23725952667622485225962236654595;-0.12304943729309364419677308433165;0.11994194207450847855511710804421;-0.0011071513302516877708114861889044;0.046144262878047404008441390033113;-0.099792280790679421809130644760444;-0.33814643246336806292617893632269;0.14486942436529048894300331085105;-0.36353964243446268422843559164903;0.42846228488722259974963435524842;0.30918991100793158377513236700906;0.26127353444050804842646584802424;-0.37241393692634444656519576710707;0.32293116208255134846893952271785;0.47017941223306536357995355501771;0.2903833155754884653987346609938;-0.13478101757994759291037212278752;-0.47709731208801925417262168593879;0.25244231531276628555104935003328;-0.21420334616904496138900526602811;-0.33063742370495602385105371467944;-0.41176279176008567795008730172412;-0.10785183639132261967930048740527;-0.21129892359228064080411968461704;0.17594440144539635895171159063466;0.43551866646276149452887693769298;-0.19745110522519238038796629552962;-0.40010270596846397861412469865172;0.41659079632636630829978230394772;0.27207898503421634739396495206165;0.27292384465874652832440006022807;-0.019282737162374941064513222954702;0.48091467806701215792486436839681;-0.20711573050796533435047308557841;-0.14817632447691925223764997099352;-0.35735132296169552779119271690433;0.24050330505671246861254530813312;-0.29162933210409824891229391141678;-0.052153044290822347939240444247844;
-0.072040862475863665093100962621975;0.4963356521436711465966595824284;-0.36197479429154638674859256752825;0.45362454501246152194227079235134;-0.12201971256687360600778902153252;0.40139466177763427623403913457878;0.19807450470968646083491648823838;-0.32259024152450527234137211962661;-0.37408749121376866364485636040627;0.05969749206866514779079579966492;-0.048040881957010006519936951008276;-0.43979058289783190538457802176708;0.20232792676750144256203611803357;-0.078074523512297266947257412539329;-0.29760778600088177991978000136442;-0.052043315031282066929207985594985;-0.084430933627755277992577020995668;-0.023420055493592606410402368055657;0.42898252249054358298252509484882;-0.39907101579704606919563047995325;-0.48729049788754980054861221105966;0.3284757324124916166852017340716;-0.49892328756386977728354281680367;-0.16300492938321631264386724069482;0.39481531701903460618297003748012;0.25618814186862448600834341050358;-0.33361836089675345196070566089475;-0.21117619240435719918380641502154;0.25451640744025194607047524186783;0.39596292379894959534425424863002;0.014049505438235354581877345481189;0.30577137137891252649524176376872;0.10355880916892856724587090866407;-0.12385545379458667847316633014998;0.33035460025558338603701713509508;0.03530540026718065327315798640484;0.27919435671837444790099880265188;0.31424774721376746988710237928899;0.403922886722933305314597873803;0.41503753102401630403761600973667;-0.064913720210414749267613387928577;0.32981035183445561731474526823149;0.11239708731093156490743467657012;0.0003304014015514944446749723283574;0.49411381505114293499758559846669;0.33431281947170132795577046636026;0.19535934649984476596529248126899;0.16105273227866001573005405589356;0.18037288438009235758130444082781;0.13913846268783192083873245792347;-0.4950491157352823190507251638337;0.26978005382788527999338157314924;-0.13376991409584004788513311723364;0.081339129401454712819941050838679;-0.0758904660470336445143857417861;-0.45899840454546203538654935982777;0.29672690980678784189450425401446;-0.25391976086973211401698335976107;0.4997184365645942483169505976548;0.19223095082466457039771512427251;0.093770744406827533090620363509515;-0.29987866776758892450871485380048;-0.14389566975797662973235446770559;-0.13734159766972087179937034306931;-0.23389840261045841129927680412948;-0.26796505049785590557576142600738;-0.22847724101013427988604576057696;-0.30031829177054991664164163012174;0.13453996265246648267321916137007;-0.16075961932006710419784667465137;-0.060492022148578405982277672592318;-0.018515703898240587488288610984455;-0.32892820508014808389418703882257;0.053554502229259948187234385841293;0.20919136732665266631414624498575;0.23979219587331701557531005164492;0.36231727914858169459222381192376;0.11757199593214229249582558622933;0.47774304325406846682966488515376;0.48912152982230261422103012591833;-0.45302270690663010155319057048473;
0.044648396069576379296961476939032;-0.061283071892970608640638374708942;0.097965923311096436698619527305709;0.18811521303828770967925265722442;-0.45153902482990365685466827017081;0.2960781006871866516405589209171;-0.36320373718435439158724875596818;0.3003064188291141300979347761313;0.12786586396790866615447157528251;0.45699410732962608694407435905305;-0.30145613002062493501753692726197;-0.26180282437847213206083551995107;-0.40574123946921381023145158906118;-0.24696554795745634391934686391323;-0.18205911097938026754761153824802;-0.43263534997328445541597830015235;0.34238325653449841468045633519068;0.039347139793235785809599747153698;0.36116786457188698733489218284376;-0.25306986301434336583682238597248;0.30673750040328950916546091320924;0.28395407338931111240754034952261;0.40069600058198107106477436900605;-0.4075783006234277028312362745055;-0.1530848280898953195361400503316;-0.12477651593196215085157518842607;-0.031324864836794197309188803046709;0.041392681789681473603081940382253;0.21590075653070972538927208006498;-0.31588563420668835934890239514061;0.32737924760370751275928569157259;0.10619417235376416019931866685511;0.12929185337585669124393916717963;-0.35641682133872587545653232155018;-0.23393377793283076648833684885176;0.44501948076318686986496686586179;0.066432215481443734894639874255517;-0.21339479817917494930412658504792;-0.49454989877079680304916564637097;0.2773008296469813283025018790795;-0.48504720450599153602766477888508;-0.26725952477262976403338257114228;-0.25387947101826080498199189605657;-0.12261869155590271462941132085689;0.10494555225878288151619699419825;0.014477860424156330232392519974383;0.32947946326344945688902043912094;0.29848202824656588916241162223741;0.26838383882461824825327312282752;0.1928754305383193479173087325762;-0.43022756991687499672494254809862;-0.0075886513873718031142345807893435;-0.39572775210339111717772198062448;-0.15694039675436688430210097067175;0.10894483411607480682903315027943;-0.15711009741135889550278648130188;-0.082693233831330148486671305363416;0.038570987610130669231978117750259;0.45968035550316199699949493151507;-0.27888380555600134069749174159369;-0.17700141044960010505704417482775;0.1932362693954532417706104752142;-0.15466230913383816059081254934426;0.32937410687152446353564982928219;-0.16812432604359239807223502793931;0.13087382175641859571868508282932;-0.036823481259601442694417983148014;-0.074691611019379489100344926555408;-0.12551222753689389444176072174741;-0.37491547000972463843382342929544;-0.25438819579193316933185542438878;0.15689127608735276009355175119708;0.41272316009205267661741345364135;0.15343702243376522442730447437498;0.2269417456187059478622813912807;0.031154642162195766985632872092538;0.41228601833855782476945250891731;-0.29620619117111135487618867045967;0.1916270604674924493693310978415;0.022587131189944931186630583397346;-0.1700150062893906466321425341448;
0.30508316880728203468464698744356;0.38806538853889238627203894793638;-0.1373121604534817130627288861433;0.22065427357430256183334904562798;0.21994022701885962423062892412418;-0.36093849181888804089624045445817;0.1584133523136570520506438697339;-0.0098036915724109552350284957356052;-0.31756171838733271428623083920684;-0.24556456082002148244569639246038;0.29545139416306187563066032453207;0.319348535935422672693562162749;0.47292234140347277904226075406768;-0.38069178112579188377750938343524;0.32744601816063712007576214091387;0.077660858292991519213899209717056;0.058359085294829360357482528343098;-0.40568793389117041581215516998782;-0.19701821043747780315413820062531;-0.16981981196911316578379569364188;-0.29779644555883849621480408131902;-0.39141601414447185769418524614593;-0.10391375491258558749763096784591;0.46012185801873140000850526121212;0.42638653755424149593977745098528;0.16955724116894099751107205520384;0.10873207690642749945197920169448;0.266765205240120817364868344157;-0.051387660866799578229802136775106;-0.42573687594930331723475092076114;0.49217549461590781589848120347597;0.17346537940729322979649396074819;-0.11078767353217050528613185633731;0.26826450694620740389240154399886;-0.38824889846510390878364660238731;0.13632707784622577484867633756949;-0.0042944320872633223729053497663699;-0.17800834650216751375850776639709;-0.019849045721844649214915534685133;-0.4463803138448362850532191714592;-0.27395302506393548469532106537372;0.2120788351694397055879903746245;0.0030917201212041778290995353017934;0.1792815907655048723867707849422;0.26846976955730927905108273989754;0.12037216009955487017180075781653;-0.45573614174497106832362192108121;-0.069847173510522164718850035569631;-0.12888946302039605562583801656729;-0.35017278276568242212363202270353;0.39012339144927776768412286401144;-0.25998863230337820873216969630448;-0.43442499057279898577732524245221;0.38929377005876231176983992554597;-0.017622566006555762108121143683093;-0.19475284005042320378819908910373;-0.3813087412047050372976286780613;0.22286390680040524259197809442412;-0.064957262636708257286244361239369;-0.37822430994020694861035281064687;0.40754342863318271383832325227559;0.47879803560393607853029607213102;0.35490309028861322104830833268352;0.17673620398994016600369150182814;-0.49158968257116858469046860591334;-0.39537098925349778433258052245947;-0.43656324727494955073581195392762;-0.17406184427130488856505508010741;0.14698871567642735058711878082249;0.25338763553381149495891122569446;0.27517593572562482062693334228243;-0.44527407458305745535653841216117;0.07827265537129091121926194318803;-0.034628420098340051413998708085273;0.2262507106117728206129413592862;-0.13382967917942095725791773475066;0.23176560167267090672993390398915;-0.027425421164853525102245157540892;-0.30763977620777471777557821042137;0.39399851543624919703034947815468;0.41853431560711107373151662613964;
-0.36877669721167888328139383702364;-0.49778804113688845944807326304726;-0.30318565264445962448291993496241;-0.0045363162219106967221193826844683;0.35475844095026709545948051527375;0.4077382024278982664000636759738;0.18211154471767987406138900041697;-0.32719160025137905556391615391476;0.24765456292021847950479696010007;-0.22035935117098909286070806956559;-0.17787461307476432059715421019064;-0.42807609176206445900092489864619;0.20705275073534290530830048737698;0.31659893618540735360511462204158;-0.2213762332193714987838006891252;0.093654799845962699578194587957114;0.4973780404497055718238129884412;5.5351770959055635046297538792714e-05;-0.43684521528828634817642750931554;-0.38424229284119759686433326351107;0.29261034758918713638564668144681;-0.10091745016517283950463479413884;0.49278281197726681028825623798184;0.17902028766711164387004373566015;-0.49932195373438770236163009030861;-0.47599538260888890617295032825496;-0.23258483439043092788622857369774;-0.12966233978435476315027585769712;0.43867143061696955985695467461483;0.049735108387090498638372082496062;-0.35815069369585572633951642274042;-0.1853792727740683488057982231112;-0.31227061463437033594914282730315;-0.21023225453570987264484415391053;-0.33024278646019156191471211059252;-0.43999456640511935834325640826137;-0.24398663569371353831982673909806;-0.24440054670168726014267690516135;-0.29260845573694316268387183299637;0.17407127557103241333180676519987;-0.4566221913738640614255359650997;0.46905692492364958745554304186953;-0.36693961966688748432829925150145;-0.025383415457753411015318079080316;-0.027854504717205574859661965092528;0.24528855170485097669796914487961;-0.24957979573501148928826864903385;0.17894329745158910061064716501278;0.0034766226718973003428914125834126;0.22927982592228446367954575180192;0.25071194348630332360272632286069;-0.050332824951290378034940431462019;0.098678415046872691718249370751437;0.10223215517404904417730904242489;0.42998982442029187733822936934303;-0.18086949831189041981716059126484;-0.031085357071091168634779933199752;-0.23073336335114102979559902451001;0.38996533809882416576897412596736;0.41853915020862897389264389857999;0.1475606430237204058641964365961;0.24269993674958367790850388701074;0.14328989459194518829576736607123;-0.15255803017179747627096730866469;-0.40842955586777968113310066655686;-0.35557958864626093564709208294516;-0.27434638992018206549161618568178;-0.38755808331858626614163654267031;-0.22963714066091245324940928185242;0.45798072598076944306200175560662;-0.099801470412151982447568343559396;0.33508453749752575845377577934414;-0.025512709966598046129604426823789;-0.036330322950531457326661666229484;0.49447165165023765354135321103968;0.39678729934644940691157444234705;-0.4233605400743234992155805684888;0.1673052822175876697130547654524;-0.0468525197059242448638372025016;-0.12073802334500077781953564226569;0.01980334122745908143059523354168;
-0.12835132964599277327621962285775;0.23896687937952210134540109720547;0.25126770414305243939168121869443;0.40392953401675824043337570401491;-0.37566908569052648303454589040484;-0.35184789813594952168074314613477;-0.21862363422660524570062534621684;-0.23179400483277123878878001050907;0.070776532994918928132221935811685;0.31271787870503553463663592992816;0.31552725663620329044078971492127;-0.22045463629821837603373069214285;-0.046769840413960428460171669939882;0.36311945868648665136646513929009;-0.15475614132002185607817068557779;-0.44475451249573727530162159382598;-0.037902043880435942746487398835598;-0.29137765203611376563230805913918;0.17145654251206321472267291028402;0.17852105551717101228348383301636;-0.27493584809044901984265152350417;0.21361319107585252652370400028303;0.034368460696133973364396752003813;-0.37328840090030168674672950146487;-0.094330220943862119753475781180896;0.022758220489088376581321426783688;0.41492614144666040143505369997001;-0.063896637327447491916387889432372;-0.10151160129933384235201287992822;0.30424893740784053619563565007411;-0.064228253736413054575393744016765;-0.035928606228752046902741312806029;0.3503772972748525615926951104484;-0.32534167098244026750109014756163;0.47450251476084948087930115434574;0.44958286605091735133044039685046;0.40742937389764766198396728213993;-0.17301930454592162611504591041012;-0.39982986690978850052857751506963;-0.3361083370358550759249283146346;-0.29714696464287160271311449832865;0.1828056966744092681764755070617;0.21808612849836805924752525243093;0.32829580700157590111842864644132;0.39369796558702041533450710630859;0.375190941242919739906369613891;-0.27392155765630565866786128026433;-0.32531856964487509964456535271893;0.42424183600404496985447622137144;0.20244205211394716847905783652095;0.16881081937240327572880005391198;-0.37803464847475909405005722874193;0.069532737738502659041728293232154;0.20757370061445779008124645770295;-0.26500204168638952229031247043167;-0.47408623609994471337358845630661;0.029905764437458182136708728648955;0.43322051711506148752306444293936;0.29059723043796037433850187881035;-0.11005965537444267754452198460058;0.36832484238747642546485394632327;0.19833023363880986078555679341662;-0.33521797737179803711171643954003;-0.39387623602426391489217394337174;-0.37146431463744516987546262498654;-0.31559721807410312521824380382895;-0.3071036140739264452825807438785;-0.26930879923783646034962657722645;0.33289306014465414040870427925256;-0.019909671216846003272138432294014;0.47345465216210080861003461905057;-0.25256284733261258335090815307922;0.073960473851199526329480704589514;0.45129020345694792482049706450198;0.4832934525793428637285842341953;-0.028819909692271938883578741297242;0.035813218550354797287127439631149;-0.40597193439872159004266904958058;-0.19952257673645090729763751369319;0.48327754521635302165094572046655;0.34594208821565819444998624021537;
-0.04998020102193079239327744289767;0.044307063545855118746885636937805;-0.18011284157818180373666905325081;0.23537211656858925135082927226904;0.10052969920670384862404489467735;-0.076970567725421212834646667033667;-0.39210098069275778343012461846229;-0.015216402685494456736847723732353;0.35638906600651820699710015105666;0.39457061555673389463549938227516;-0.20679091208749078578676972028916;-0.45570689542226261448121249486576;-0.30045426749727971449388519431523;-0.075204644658865393846980396119761;0.1087511227725592721782277294551;-0.19297538849823370199487726495136;0.15927976700391788256183644989505;0.26981533033678939403898766613565;0.078073020226710476698883667268092;0.34810475077952285349880412468337;0.28801682455919774827890478263726;-0.19080796797428922761952208020375;0.49637738515353069246316408680286;-0.30404828155474866724361504566332;0.13678767891855370120168799985549;0.46053614344598203800273950037081;-0.15415054196523519935979606998444;0.052748429507480154576626318885246;-0.46276844812179024346576738935255;0.36145519286589589125213706211071;-0.43708036475185518821007235601428;0.094814989680983008391024213779019;-0.17427636748117730780549550217984;-0.053142495540310474844147847761633;-0.19706505909729477021841148598469;0.38518441820923021712275158279226;0.3278163846561648053778981193318;0.4500161232062964700162410736084;0.17565063045857809420624562335433;-0.20527033932270283278498368417786;0.032108787012667616700412054342451;-0.24828425337773929459928012875025;0.37754000814781063510849890008103;-0.38737199912601993911920317259501;0.13726522155525544555132455570856;-0.18264382488678759797195993996866;-0.40226785310744261892068607266992;0.451673238543429445002175270929;-0.40551854395012376652829289014335;0.028816129126833622819958691252396;0.34851316646206254024065174235147;0.15424730960132759793879131393624;-0.48519431068656354577584011167346;0.32421363209226783386185388735612;0.4257929909829819559163865960727;0.13017119731796233939036255833344;-0.10965372860606753535606117111456;-0.2435113355259587719636726887984;0.46777750870279266592888234299608;0.13295848389687292545602304016938;-0.30102983469639355007529957219958;0.21261924235266327354310078590061;0.24940421250844113654210332242656;-0.38081317100414580067990755196661;0.049166780153740541337015201861504;0.071667675961570420639645817573182;-0.35804277093733205550307729936321;0.39825351443037237952893292458612;0.09824864694968171718869598407764;-0.045620662761369223936469552427297;-0.29701013859243330372805758088361;-0.35142720158999718460535177655402;-0.33809427667557778729445772114559;0.37429097903752228670981594405021;-0.056280001879815078069668743410148;0.25653186350719958674915233132197;-0.46757150092264881946491072994831;0.027060164335769520960184308933094;-0.44730941451517425289097218410461;-0.2350234253041685317242581731989;0.15807964260920559507184179892647;
-0.27141125296590012938580116497178;0.14678523247681685148791075334884;-0.37123139510434782772918538285012;0.23571398290153436350102822416375;0.074543659908256371116053173864202;0.48739431850635200893506748798245;-0.14746932313013746962404582063755;-0.3681477087057068997566489088058;-0.33909490927164731566278987884289;0.2168075507917486544062768416552;-0.11543226733633446534632582824997;0.052513383655003076366796221918776;-0.392915395805180478472351524033;-0.17684019553516222567068894022668;0.14042540994258057018839735974325;0.46193929445379028342344440716261;0.40009470922930362446479080063;0.27347508023113931141523380574654;-0.042010257250376284443582619587687;0.10663363354177994579696786558998;-0.43234927046315418941446750977775;-0.12399385029551662773528164507297;-0.0339966427238919052800092401867;-0.0028740039336323944599294044621729;-0.26619390908967188735800846188795;0.30038801348028576487791951876716;-0.28001382806061170249734004755737;0.040949185726367617887966332546057;-0.21786195671124267136953278622968;0.40944988436275153720345088004251;-0.41469518917451791972794694629556;0.014103012372421603812244761400052;-0.43883877961086564800652354279009;-0.28362017328906707902547168487217;-0.063422842154741268516637830998661;0.40906146482954403031939705215336;0.037543533444620136307889879390132;0.29058182314076336227870456241362;0.47026987416942744868464387764107;-0.24915301382078153258348152121471;0.17395579721619561230916417571279;0.22697210881276672078676881483261;-0.10999751749705280468027979168255;0.054728946095118975734283850442807;-0.055632451472783270296496027640387;0.46670779807088558222005758580053;0.19927299136644083255021087097703;-0.17623818911549074539557580010296;-0.36276551583364852193724914286577;-0.078695675732273401292715675481304;-0.42169278850895575150303784539574;-0.0018606282972966183344998292170658;-0.42623834203043931001531063884613;0.40419907407877675442620102330693;-0.15465930517873460736666402226547;-0.34810311858766879167248475823726;-0.14316269617519605805711080392939;0.35454067664402266757406323449686;-0.10887306814043122560331511294862;0.22157262642429853549685958569171;0.11696005839423929961728987336755;-0.075254303296399455147636103902187;0.38688464969029695561530957093055;0.48157573331447495190715812896087;-0.046402780009991824450299446880308;0.049228658174831983751484898448325;-0.4112651083342216407068292483018;-0.40171403622214657547218052968674;0.1013916854286587843070321923733;-0.09283351847960936986670077430972;-0.16642130067596216935754682708648;0.11966638189764858268837599553081;0.32953114680642220379880313885224;-0.2405302061652927758661490997838;0.43982620003143235720699522062205;-0.10928162951711249684105808910317;0.1327995186700622609610178415096;0.32829723255765219658286468984443;-0.0037564048462466028202588752549218;0.27316874495478971063278095243732;-0.15620742409512272663718590592907;
0.38351212792621114378022184610018;-0.18598681962761398622774322575424;-0.12552049536913370553214974734146;-0.34108144989029104410249715328973;0.22367831491575299041052460324863;-0.067465518970016916111553939572332;-0.23065059484493305452801337196433;0.33280229634420233075786654808326;-0.35552945084616410786892970463668;0.27234513889049832835453912593948;0.024915180907641491792059440513185;0.088525684366793699897613123539486;-0.15366685705184718324645132270234;0.48200021995005548625101710058516;0.27035751158002685468062509244191;0.29786322330189701768077270571666;-0.43513138692241654092995872815663;-0.27054391665855753723590737536142;0.43950320034444373407112038876221;0.46219270976273491013941452365543;0.42322899786355028250994791960693;-0.47568426667017738029841211755411;-0.36101485206129668714680747143575;0.18613772327924857363790067665832;-0.044568583467188789548618643721056;-0.0070656917233641799991339382813749;0.28016406728983539453636808502779;0.13286855892587012828442993850331;0.4768919425364178121817815281247;0.20539376922367982847283940373018;-0.34677030777616668633100971419481;-0.084902912234766717003431324428675;0.055720720900736570024847083004715;-0.17582728775467715287561532022664;0.13163966094472304146911767475103;0.20571079569161976330349261843367;-0.41352721218017518545195798651548;-0.18137713508963590469669213689485;0.41659442638887028698135850390827;0.17298361038391002475478330779879;0.32606491305540863390177719338681;-0.067281103230977107321209018664376;-0.45350401060702166811111624156183;-0.017420411251539095337514950756486;-0.13194063190292054654761955134745;-0.2630919966088082206923104422458;0.20250018573219585871214576400234;-0.37511550757211076234654001382296;0.37595219921197753354391579705407;-0.18921842637112579188496397364361;0.24217338245789998829593514528824;-0.12922216146892731569728596241475;-0.069757253879541389340879220526404;-0.14202472889665054833763235819788;0.34587685735660345098807511021732;0.064261198670311422964651626443811;-0.44331895851415970000175548193511;-0.24622434831991377168769474792498;-0.33965763095711071217763787899457;-0.075567701888348118299809641484899;0.36814697367793497440047190139012;0.15332532134671444934426176587294;0.1721495017476107614040614635087;-0.27014715012178086572802726550435;0.19668208989733906855157385962229;-0.25931545083724899525279283807322;-0.006225752841492266688450119005438;0.070327671499859245596297796510044;0.23370984319894660963257138064364;0.36917191343455624252811730912072;0.10035200036646181598332105977534;0.11967639491291642839243536400318;0.18228321599469846092667069115123;0.35699925850085595380178915547731;-0.47705397070154492711324678566598;0.3849492753900286556856258357584;-0.106239139438004545623606134086;0.3581760067028649241471782715962;-0.046147763028201047030840697971144;-0.29184441894818191620686320675304;0.30331386387027770012991823023185;
